6.206635300116417238e-03 1.301913134712580461e-05 -3.216372080635828851e-06 5.617677667796171670e-05 6.383083947726767894e-05 -5.805502467161537626e-05 -4.366618523084911710e-05 -3.605700343954546634e-05 6.270619077256768428e-05 -1.381731246168362254e-05 -5.924323765324345404e-05 -3.392524090703419418e-05 -1.181693517314372021e-04 -1.645807238865318800e-04 8.081221042342310272e-06 -3.233044940525914334e-04 -5.015680919030335565e-04
1.301913134712580461e-05 5.561661763263025995e-04 1.018473775386962514e-05 1.110738080117627759e-05 2.044305170681800336e-05 5.857974315999059870e-06 -1.819538973685651498e-06 1.361760872322618686e-05 -5.589519971785628287e-06 -7.857647636000949056e-06 -1.618570046411549832e-06 1.781265243524582175e-05 -4.447374584210990760e-05 -6.282211284431142594e-05 -1.733651978430950810e-05 -1.398215506066711393e-04 -2.821418655724292372e-04
-3.216372080635828851e-06 1.018473775386962514e-05 5.840507815904059149e-04 1.726715986766358407e-05 -1.970052750103101180e-06 1.789720369487790178e-05 1.933768848026194164e-05 1.139698365701187096e-05 -1.529845283432902989e-05 -1.748110127838053632e-05 -2.523224228538844632e-05 -3.037865898120370418e-05 -5.197274734441636269e-05 -1.421006248550732399e-04 -1.661126894607754974e-04 -1.152065172156988666e-04 -2.246687772831618775e-04
5.617677667796171670e-05 1.110738080117627759e-05 1.726715986766358407e-05 6.866836788245158025e-04 1.407518410618203933e-05 1.315934504878248510e-05 1.491622543006903291e-06 1.680131778721084324e-06 -3.904210940091341611e-06 3.195844829010177114e-05 1.381150255045287036e-05 -2.952909928594290242e-05 -4.642109126278299046e-05 -2.528564393365591840e-05 -9.125028704174839784e-05 -1.790366492366529216e-04 -3.566356635078574383e-04
6.383083947726767894e-05 2.044305170681800336e-05 -1.970052750103101180e-06 1.407518410618203933e-05 7.608834686111362903e-04 2.132486282846880648e-05 7.851979543975056439e-06 8.875908896826022388e-06 6.598240007838641135e-06 4.175953420967085819e-06 2.508079923675674331e-05 -1.000559412912433317e-05 -8.371615865635128047e-06 4.356044290123030509e-06 9.920441002026266365e-05 -3.256881752993137777e-04 -4.945325420659937637e-04
-5.805502467161537626e-05 5.857974315999059870e-06 1.789720369487790178e-05 1.315934504878248510e-05 2.132486282846880648e-05 8.920630043214884935e-04 1.744099047400493686e-05 2.676836687806000099e-05 2.316656945088423820e-05 1.673665241950152786e-05 -2.785576253071333938e-05 7.946044138727014611e-05 -8.899126735919707688e-06 6.544479453730300461e-06 -1.463982105361589310e-04 2.776309962676467457e-05 -2.670891897229562347e-04
-4.366618523084911710e-05 -1.819538973685651498e-06 1.933768848026194164e-05 1.491622543006903291e-06 7.851979543975056439e-06 1.744099047400493686e-05 1.010927549719655653e-03 2.400728771387271445e-05 1.898154353309761221e-06 5.146390584119140896e-05 5.253871791386147557e-06 -5.217127090607981830e-06 -1.344559355349904754e-05 -1.512210492337974803e-04 -7.281129183866628853e-05 -1.891564680626096429e-04 -2.381091651897896831e-04
-3.605700343954546634e-05 1.361760872322618686e-05 1.139698365701187096e-05 1.680131778721084324e-06 8.875908896826022388e-06 2.676836687806000099e-05 2.400728771387271445e-05 1.334997294347183222e-03 3.149158328721754453e-05 5.577717564182029322e-05 3.461908706150907257e-05 -1.784479023228178579e-05 -5.203024713845270440e-06 -1.257084137007265451e-04 5.005724227786277576e-05 1.145486508975098460e-05 6.089171218184740749e-05
6.270619077256768428e-05 -5.589519971785628287e-06 -1.529845283432902989e-05 -3.904210940091341611e-06 6.598240007838641135e-06 2.316656945088423820e-05 1.898154353309761221e-06 3.149158328721754453e-05 1.594915689885865366e-03 4.523214291566192668e-05 1.521341776591649713e-05 7.998330217367654612e-06 -2.949745795268580870e-05 1.531683641308031140e-04 -7.945687676682569242e-05 4.170976341907990187e-05 -7.009323575590123770e-04
-1.381731246168362254e-05 -7.857647636000949056e-06 -1.748110127838053632e-05 3.195844829010177114e-05 4.175953420967085819e-06 1.673665241950152786e-05 5.146390584119140896e-05 5.577717564182029322e-05 4.523214291566192668e-05 2.245951976412077430e-03 6.536414952151015632e-06 9.403205624929292651e-05 8.349871134369022936e-05 9.978588777495686797e-05 -1.767661981173854609e-05 2.165004559775075192e-04 -4.303724309507361888e-04
-5.924323765324345404e-05 -1.618570046411549832e-06 -2.523224228538844632e-05 1.381150255045287036e-05 2.508079923675674331e-05 -2.785576253071333938e-05 5.253871791386147557e-06 3.461908706150907257e-05 1.521341776591649713e-05 6.536414952151015632e-06 3.048367091277980577e-03 6.093171288738100008e-05 1.677771108966221835e-04 1.771119877003004867e-04 7.457245696032742334e-05 3.345734891612493040e-05 7.387463749175592152e-04
-3.392524090703419418e-05 1.781265243524582175e-05 -3.037865898120370418e-05 -2.952909928594290242e-05 -1.000559412912433317e-05 7.946044138727014611e-05 -5.217127090607981830e-06 -1.784479023228178579e-05 7.998330217367654612e-06 9.403205624929292651e-05 6.093171288738100008e-05 4.359106370451527705e-03 2.449993155346381619e-04 2.688576010284464716e-04 -7.017233447527391229e-05 8.607541172918415284e-04 1.188743216258017488e-03
-1.181693517314372021e-04 -4.447374584210990760e-05 -5.197274734441636269e-05 -4.642109126278299046e-05 -8.371615865635128047e-06 -8.899126735919707688e-06 -1.344559355349904754e-05 -5.203024713845270440e-06 -2.949745795268580870e-05 8.349871134369022936e-05 1.677771108966221835e-04 2.449993155346381619e-04 7.131644216787094703e-03 2.719028210823500871e-04 5.564231575768407854e-05 6.987146039659436828e-04 1.374324794914315046e-03
-1.645807238865318800e-04 -6.282211284431142594e-05 -1.421006248550732399e-04 -2.528564393365591840e-05 4.356044290123030509e-06 6.544479453730300461e-06 -1.512210492337974803e-04 -1.257084137007265451e-04 1.531683641308031140e-04 9.978588777495686797e-05 1.771119877003004867e-04 2.688576010284464716e-04 2.719028210823500871e-04 1.263429581410651335e-02 5.984924684522135996e-04 1.550454793400823927e-03 2.248634761714341564e-03
8.081221042342310272e-06 -1.733651978430950810e-05 -1.661126894607754974e-04 -9.125028704174839784e-05 9.920441002026266365e-05 -1.463982105361589310e-04 -7.281129183866628853e-05 5.005724227786277576e-05 -7.945687676682569242e-05 -1.767661981173854609e-05 7.457245696032742334e-05 -7.017233447527391229e-05 5.564231575768407854e-05 5.984924684522135996e-04 2.359686227944131701e-02 1.212077978511333365e-03 3.250714421574921707e-03
-3.233044940525914334e-04 -1.398215506066711393e-04 -1.152065172156988666e-04 -1.790366492366529216e-04 -3.256881752993137777e-04 2.776309962676467457e-05 -1.891564680626096429e-04 1.145486508975098460e-05 4.170976341907990187e-05 2.165004559775075192e-04 3.345734891612493040e-05 8.607541172918415284e-04 6.987146039659436828e-04 1.550454793400823927e-03 1.212077978511333365e-03 5.539760418147880727e-02 6.588308573579432399e-03
-5.015680919030335565e-04 -2.821418655724292372e-04 -2.246687772831618775e-04 -3.566356635078574383e-04 -4.945325420659937637e-04 -2.670891897229562347e-04 -2.381091651897896831e-04 6.089171218184740749e-05 -7.009323575590123770e-04 -4.303724309507361888e-04 7.387463749175592152e-04 1.188743216258017488e-03 1.374324794914315046e-03 2.248634761714341564e-03 3.250714421574921707e-03 6.588308573579432399e-03 1.393229564083626193e-01
