9.854544477656152282e-03 -2.997584638487906002e-05 -3.153876929138389989e-05 1.930569311098272368e-05 -3.881512220417252884e-05 1.691874063439360024e-05 -7.434489707585285629e-05 -3.814756754142994158e-05 7.716782546108766870e-05 -1.943804909772889872e-06 2.574226776457996045e-05 -3.697618398537326197e-05 4.425468775605600417e-05 1.741288478175818971e-05 -1.054965446174716660e-04 3.408700399763526022e-06 -8.911589521471399624e-04 -6.768691848526460757e-04
-2.997584638487906002e-05 4.172726145757234273e-04 6.636811769786339173e-06 1.732239941744647218e-05 5.311636225752415668e-06 -1.933817432475033696e-07 -2.065567572380027122e-06 -2.274834308618876317e-06 -1.005628433087982443e-05 1.424217499890806498e-05 -1.518250225149811013e-05 -1.793412474635914508e-05 -3.308399909324308188e-05 -8.103924475964624735e-05 -5.661321950887878096e-05 -4.103389410298472265e-05 -1.499790628579970007e-04 -5.157259869621992230e-04
-3.153876929138389989e-05 6.636811769786339173e-06 4.500883987308691410e-04 1.693518661787154960e-05 2.652659127175120181e-05 1.681598103726603881e-05 1.495771194136529987e-05 4.619055705485518545e-06 3.112065991389855605e-06 -1.770090488760523199e-05 8.985340592345784306e-06 -3.109689295744447813e-06 -3.266752063840148166e-05 -6.773340346994302630e-05 -1.125214742170046968e-04 -1.175490232848274715e-04 -2.519745918876597850e-04 -4.600537125067701992e-04
1.930569311098272368e-05 1.732239941744647218e-05 1.693518661787154960e-05 5.110251687889883409e-04 1.235222433255541374e-05 -3.867420826395847477e-07 1.678601898985411419e-05 -1.329961671585868502e-05 6.444263438999985293e-07 2.968416048073902112e-05 -4.650587620406875113e-07 -4.019489784544958056e-05 1.201679789383565789e-05 -7.612824201278816012e-05 -1.501169087936217884e-04 -3.527403270040496664e-05 -2.373598999492686191e-04 -5.207008992314810783e-04
-3.881512220417252884e-05 5.311636225752415668e-06 2.652659127175120181e-05 1.235222433255541374e-05 5.720031225929391285e-04 1.128817375845782858e-05 5.103647701527184693e-06 2.816339281366945469e-05 -8.472526076208899420e-06 2.771678437554150655e-06 -9.370680746077807762e-07 -5.056219741645105701e-06 1.657240975976891223e-06 -2.865457173640452432e-05 -3.422471847053019071e-05 -1.714362179738421448e-04 -2.550283421797057111e-04 -5.354583393178239965e-04
1.691874063439360024e-05 -1.933817432475033696e-07 1.681598103726603881e-05 -3.867420826395847477e-07 1.128817375845782858e-05 6.631292919928698107e-04 7.190482285540512079e-06 2.539166019078707332e-05 -1.161549170083851769e-05 2.632076731478007951e-06 1.492688731921472076e-05 7.756234140073121945e-06 -1.119411755467481425e-05 4.642148363528055783e-06 -3.031928299407186515e-06 6.914016066518842241e-06 -7.027922386407614379e-05 -6.130632523057680293e-04
-7.434489707585285629e-05 -2.065567572380027122e-06 1.495771194136529987e-05 1.678601898985411419e-05 5.103647701527184693e-06 7.190482285540512079e-06 7.616112078860143211e-04 -3.474990960033971108e-06 3.184297518165398605e-05 2.650607791320729864e-05 5.388701601451389737e-06 -4.099141303672838957e-05 -3.839064143598626415e-06 -8.030287644481192636e-05 -5.135102177922317671e-05 -1.239699476532251841e-04 -1.185538605812335957e-04 -5.341523574416725921e-04
-3.814756754142994158e-05 -2.274834308618876317e-06 4.619055705485518545e-06 -1.329961671585868502e-05 2.816339281366945469e-05 2.539166019078707332e-05 -3.474990960033971108e-06 9.386428012863665257e-04 1.604819125762199311e-05 -4.655983810225751654e-07 3.016669594883840641e-05 2.054502720903672029e-06 -2.396167867922078328e-05 -9.901211250178583456e-05 -5.612135948952099655e-05 -8.219072255830628935e-05 -1.421556333021168402e-04 -3.434735067989202226e-04
7.716782546108766870e-05 -1.005628433087982443e-05 3.112065991389855605e-06 6.444263438999985293e-07 -8.472526076208899420e-06 -1.161549170083851769e-05 3.184297518165398605e-05 1.604819125762199311e-05 1.151127482571530965e-03 3.848587875763792695e-05 3.182301624684801374e-05 -4.179033575945572505e-05 8.018396894623700135e-06 -1.372740164346367705e-05 -1.635461365072216056e-04 -1.083822668467586994e-04 -7.235174849880556479e-05 -5.758451802772595511e-04
-1.943804909772889872e-06 1.424217499890806498e-05 -1.770090488760523199e-05 2.968416048073902112e-05 2.771678437554150655e-06 2.632076731478007951e-06 2.650607791320729864e-05 -4.655983810225751654e-07 3.848587875763792695e-05 1.436788340513475096e-03 -8.411817433274994016e-06 1.419193926745691144e-05 -3.611200392036368359e-05 1.903018421516293902e-05 6.739575114839841936e-05 -9.757172768311792325e-05 -1.375885303360291183e-04 -4.660910170729993390e-04
2.574226776457996045e-05 -1.518250225149811013e-05 8.985340592345784306e-06 -4.650587620406875113e-07 -9.370680746077807762e-07 1.492688731921472076e-05 5.388701601451389737e-06 3.016669594883840641e-05 3.182301624684801374e-05 -8.411817433274994016e-06 1.932704531546956556e-03 6.058176390492040744e-05 3.093937969547765152e-05 1.983227829359526995e-05 9.282794763729431613e-05 -3.472083640648044537e-05 4.667990675418290471e-06 -5.149245101421391895e-04
-3.697618398537326197e-05 -1.793412474635914508e-05 -3.109689295744447813e-06 -4.019489784544958056e-05 -5.056219741645105701e-06 7.756234140073121945e-06 -4.099141303672838957e-05 2.054502720903672029e-06 -4.179033575945572505e-05 1.419193926745691144e-05 6.058176390492040744e-05 2.730800884439730028e-03 2.514357272701790710e-05 8.723772007451771810e-05 6.214259167713412899e-05 -1.182533917345684193e-05 2.055277306971574022e-04 2.570907571515901975e-04
4.425468775605600417e-05 -3.308399909324308188e-05 -3.266752063840148166e-05 1.201679789383565789e-05 1.657240975976891223e-06 -1.119411755467481425e-05 -3.839064143598626415e-06 -2.396167867922078328e-05 8.018396894623700135e-06 -3.611200392036368359e-05 3.093937969547765152e-05 2.514357272701790710e-05 3.937701987225612939e-03 1.576839083394938597e-04 2.911580188626680801e-05 -8.937282450411352698e-06 1.927397450024045472e-05 8.132908235087089660e-04
1.741288478175818971e-05 -8.103924475964624735e-05 -6.773340346994302630e-05 -7.612824201278816012e-05 -2.865457173640452432e-05 4.642148363528055783e-06 -8.030287644481192636e-05 -9.901211250178583456e-05 -1.372740164346367705e-05 1.903018421516293902e-05 1.983227829359526995e-05 8.723772007451771810e-05 1.576839083394938597e-04 6.415665733536695878e-03 3.827499963455188834e-04 2.721912654281356033e-04 5.351859566878541330e-04 2.002665305492187364e-03
-1.054965446174716660e-04 -5.661321950887878096e-05 -1.125214742170046968e-04 -1.501169087936217884e-04 -3.422471847053019071e-05 -3.031928299407186515e-06 -5.135102177922317671e-05 -5.612135948952099655e-05 -1.635461365072216056e-04 6.739575114839841936e-05 9.282794763729431613e-05 6.214259167713412899e-05 2.911580188626680801e-05 3.827499963455188834e-04 1.139507156310009053e-02 1.511988511804944805e-04 7.998968123414573663e-04 1.117749443920480800e-03
3.408700399763526022e-06 -4.103389410298472265e-05 -1.175490232848274715e-04 -3.527403270040496664e-05 -1.714362179738421448e-04 6.914016066518842241e-06 -1.239699476532251841e-04 -8.219072255830628935e-05 -1.083822668467586994e-04 -9.757172768311792325e-05 -3.472083640648044537e-05 -1.182533917345684193e-05 -8.937282450411352698e-06 2.721912654281356033e-04 1.511988511804944805e-04 2.110961160916416390e-02 1.102184122930183153e-03 4.277822827551394300e-03
-8.911589521471399624e-04 -1.499790628579970007e-04 -2.519745918876597850e-04 -2.373598999492686191e-04 -2.550283421797057111e-04 -7.027922386407614379e-05 -1.185538605812335957e-04 -1.421556333021168402e-04 -7.235174849880556479e-05 -1.375885303360291183e-04 4.667990675418290471e-06 2.055277306971574022e-04 1.927397450024045472e-05 5.351859566878541330e-04 7.998968123414573663e-04 1.102184122930183153e-03 5.210702335637658333e-02 6.792432785087757115e-03
-6.768691848526460757e-04 -5.157259869621992230e-04 -4.600537125067701992e-04 -5.207008992314810783e-04 -5.354583393178239965e-04 -6.130632523057680293e-04 -5.341523574416725921e-04 -3.434735067989202226e-04 -5.758451802772595511e-04 -4.660910170729993390e-04 -5.149245101421391895e-04 2.570907571515901975e-04 8.132908235087089660e-04 2.002665305492187364e-03 1.117749443920480800e-03 4.277822827551394300e-03 6.792432785087757115e-03 1.281384998558497135e-01
