6.767555158247859012e-04 1.076894248250522813e-05 1.967907339953373064e-05 1.838713328187600616e-05 3.026763467096136830e-05 1.668399126795586782e-05 1.773920881434344510e-05 2.100155122412051829e-05 3.070858812550102953e-05 2.060918617959204630e-05 1.678273384778286418e-05 1.537805077316452962e-05 2.459002132210694563e-05 8.545404030361859215e-06 6.512367669465386195e-06 -1.173965591183871536e-05 -1.315579541532420979e-05 1.015816759734754321e-05 -3.441187414519389229e-05 -1.247039494659598897e-04 -1.654341071043259257e-04 -2.737315112480194902e-04 -4.325260679082267024e-04
1.076894248250522813e-05 1.626131600389126063e-04 1.830823183625697050e-05 2.226144321996143002e-05 2.151417774651987255e-05 2.319071653007550047e-05 2.928852526170841101e-05 2.218335254796689488e-05 2.077873407041210856e-05 2.833240600616131739e-05 1.409311322957182202e-05 2.398154766249957173e-05 1.340965755567353603e-05 9.080182671186229760e-06 6.625098967971453257e-06 1.118483893393022570e-05 -1.109269814378772142e-05 -3.315003999535677765e-05 -3.361269793725371569e-05 -8.557249155488543218e-05 -1.694076515863672180e-04 -3.198082767858443374e-04 -7.268067541209694265e-04
1.967907339953373064e-05 1.830823183625697050e-05 1.853783436099235948e-04 2.024473672165943465e-05 2.260212432211078419e-05 2.394211108649303379e-05 2.064466484746914270e-05 2.266949798686370305e-05 1.706593220715143424e-05 3.012713076456589439e-05 2.076975853937567713e-05 2.465584553122803101e-05 1.760885853176805867e-05 1.823343374794331043e-05 1.552114447280552399e-05 -5.779305697905931067e-06 1.476363538578543662e-06 -2.217544542654433952e-05 -5.711752765905941297e-05 -1.051410422150227120e-04 -1.884342279346250238e-04 -2.891255289798769852e-04 -7.462640957631328387e-04
1.838713328187600616e-05 2.226144321996143002e-05 2.024473672165943465e-05 1.897748917237310727e-04 1.945823365605700914e-05 2.103190724834900658e-05 2.813713185029188634e-05 1.727225681373137286e-05 1.250979001467828413e-05 2.539986374610266897e-05 2.441323520443419132e-05 2.119264687995454311e-05 1.345188946901859463e-05 2.096503926272390774e-05 -1.132478593578333468e-06 2.544252349393422008e-06 -6.690819255979612693e-06 -2.279107751757534529e-05 -6.515607946354405947e-05 -9.501227325137082136e-05 -2.062541905788644919e-04 -2.745285093540362283e-04 -7.085123931404643111e-04
3.026763467096136830e-05 2.151417774651987255e-05 2.260212432211078419e-05 1.945823365605700914e-05 2.052701485190376357e-04 1.588592740014120727e-05 2.236571778200684946e-05 2.596698190605374081e-05 1.865555103945152585e-05 2.550431659314195961e-05 2.595538058472465575e-05 2.056824599762686765e-05 1.456042223347341946e-05 3.528352369117396944e-06 -5.669459131136826073e-06 3.536019995922896510e-06 -3.510671228807587824e-06 -3.235120836040099746e-05 -3.891544649058484322e-05 -9.577613900012807077e-05 -1.514382192542511709e-04 -2.959900127261691212e-04 -6.737576664492385490e-04
1.668399126795586782e-05 2.319071653007550047e-05 2.394211108649303379e-05 2.103190724834900658e-05 1.588592740014120727e-05 2.244716159606435064e-04 2.468836512676012032e-05 2.379160770076512631e-05 2.035154572013624411e-05 2.939490216886726074e-05 2.549797800561694175e-05 2.444048701677748852e-05 1.737675221839037748e-05 1.482173616105761867e-05 1.320568873273998475e-05 -2.220737347550344653e-06 -1.181680349887599202e-05 -2.053058520015839017e-05 -5.380388949645247313e-05 -1.041945470515439422e-04 -1.958026569057930741e-04 -3.144442133153664966e-04 -7.804110939433641075e-04
1.773920881434344510e-05 2.928852526170841101e-05 2.064466484746914270e-05 2.813713185029188634e-05 2.236571778200684946e-05 2.468836512676012032e-05 2.449960677404747255e-04 2.347935187809114854e-05 2.081492746577783074e-05 3.494504254456724628e-05 2.731033087411457311e-05 1.247246350254100372e-05 1.579765878255972122e-05 1.289184846890780928e-05 9.525820878559822979e-07 1.873525092764315845e-05 2.312049912212890567e-06 -3.187350766600660211e-05 -5.647511619438851284e-05 -1.487562905128120999e-04 -2.012962987610757257e-04 -3.559723123393066803e-04 -7.244467089322875579e-04
2.100155122412051829e-05 2.218335254796689488e-05 2.266949798686370305e-05 1.727225681373137286e-05 2.596698190605374081e-05 2.379160770076512631e-05 2.347935187809114854e-05 2.743993410713992456e-04 2.181253019831124693e-05 2.624672876469408457e-05 1.907116469689797974e-05 2.486367303719421617e-05 1.631127334638528107e-05 1.360307483131224356e-05 1.064873564431580218e-05 2.228788113537839795e-05 1.689035143861873504e-05 -4.199421781784871678e-05 -5.135016405425395436e-05 -1.676711317941844673e-04 -1.977314422285783634e-04 -3.205135773801961975e-04 -8.279636775020227189e-04
3.070858812550102953e-05 2.077873407041210856e-05 1.706593220715143424e-05 1.250979001467828413e-05 1.865555103945152585e-05 2.035154572013624411e-05 2.081492746577783074e-05 2.181253019831124693e-05 3.041702072315342160e-04 2.538508726327981174e-05 1.513356089586464823e-05 2.104448679904582018e-05 2.937925650550557804e-05 1.342651454763149233e-05 1.505459510373863513e-05 -1.979359691388056341e-06 2.722663051430800645e-06 -3.673339508506344908e-05 -7.212714319681250337e-05 -1.394947233393525974e-04 -2.265978354617243645e-04 -2.260273060175326128e-04 -7.647038579639827771e-04
2.060918617959204630e-05 2.833240600616131739e-05 3.012713076456589439e-05 2.539986374610266897e-05 2.550431659314195961e-05 2.939490216886726074e-05 3.494504254456724628e-05 2.624672876469408457e-05 2.538508726327981174e-05 3.598187421008279758e-04 2.790522745247549225e-05 1.836293425525376794e-05 1.977232609468310961e-05 1.692231634685870036e-05 3.170435777038136216e-06 -2.683652897704843591e-06 -3.479065032284909002e-05 -3.480888286761188596e-05 -6.796279914736869272e-05 -1.472682513831899669e-04 -2.214763065952883472e-04 -4.449105299634276015e-04 -9.332495067845550038e-04
1.678273384778286418e-05 1.409311322957182202e-05 2.076975853937567713e-05 2.441323520443419132e-05 2.595538058472465575e-05 2.549797800561694175e-05 2.731033087411457311e-05 1.907116469689797974e-05 1.513356089586464823e-05 2.790522745247549225e-05 4.275107668038689683e-04 1.029370738523970547e-05 1.273926675447371720e-05 7.054126761638563660e-06 2.343031969378627625e-05 -2.904667835053242935e-05 -4.826088713953065672e-06 -2.891443908914182075e-05 -8.354106309751745064e-05 -2.010218887068320143e-04 -1.424449716570538144e-04 -3.191390108885561378e-04 -7.840477563104162684e-04
1.537805077316452962e-05 2.398154766249957173e-05 2.465584553122803101e-05 2.119264687995454311e-05 2.056824599762686765e-05 2.444048701677748852e-05 1.247246350254100372e-05 2.486367303719421617e-05 2.104448679904582018e-05 1.836293425525376794e-05 1.029370738523970547e-05 4.995533263208890582e-04 9.106259517318712198e-06 -2.811245066010266542e-06 2.082914248375267456e-05 1.574607134240854804e-05 -1.912910098728264624e-05 -2.996038806414848764e-05 -3.117205023739550752e-05 -6.618578219942958067e-05 -2.760747518890777053e-04 -4.090062040596828953e-04 -8.801714213175690620e-04
2.459002132210694563e-05 1.340965755567353603e-05 1.760885853176805867e-05 1.345188946901859463e-05 1.456042223347341946e-05 1.737675221839037748e-05 1.579765878255972122e-05 1.631127334638528107e-05 2.937925650550557804e-05 1.977232609468310961e-05 1.273926675447371720e-05 9.106259517318712198e-06 5.929349269316963687e-04 -9.966976219737970526e-06 2.622724266985753096e-05 4.427498606306669747e-06 -4.934128234832227279e-06 -4.656007269479582242e-05 -1.307837166634413036e-04 -1.675854885798821613e-04 -2.916821053719668251e-04 -2.858091437828359934e-04 -8.560308541442011431e-04
8.545404030361859215e-06 9.080182671186229760e-06 1.823343374794331043e-05 2.096503926272390774e-05 3.528352369117396944e-06 1.482173616105761867e-05 1.289184846890780928e-05 1.360307483131224356e-05 1.342651454763149233e-05 1.692231634685870036e-05 7.054126761638563660e-06 -2.811245066010266542e-06 -9.966976219737970526e-06 7.145067291219600256e-04 -2.306604144893981980e-05 -1.612069110137657083e-05 -1.893325252690877361e-05 -6.891604450034243229e-05 -6.435529169165823005e-05 -1.616790781630936139e-04 -1.336625846638443791e-04 -2.552919388585450449e-04 -6.946003533319849510e-04
6.512367669465386195e-06 6.625098967971453257e-06 1.552114447280552399e-05 -1.132478593578333468e-06 -5.669459131136826073e-06 1.320568873273998475e-05 9.525820878559822979e-07 1.064873564431580218e-05 1.505459510373863513e-05 3.170435777038136216e-06 2.343031969378627625e-05 2.082914248375267456e-05 2.622724266985753096e-05 -2.306604144893981980e-05 1.004806690105931617e-03 8.636250192708239359e-06 -9.293438853968719445e-06 -3.967239006852825444e-05 -2.217723083423814911e-05 -1.522745425451759534e-04 -3.151681355211725195e-04 -2.716359774318172844e-04 -1.042479753978541078e-03
-1.173965591183871536e-05 1.118483893393022570e-05 -5.779305697905931067e-06 2.544252349393422008e-06 3.536019995922896510e-06 -2.220737347550344653e-06 1.873525092764315845e-05 2.228788113537839795e-05 -1.979359691388056341e-06 -2.683652897704843591e-06 -2.904667835053242935e-05 1.574607134240854804e-05 4.427498606306669747e-06 -1.612069110137657083e-05 8.636250192708239359e-06 1.330625451410694191e-03 -4.975033022345923034e-05 -2.284235634514980833e-05 2.512928389272464232e-05 -1.719410371745376987e-04 -2.428870333404779553e-04 -4.454001227986855924e-04 -1.076862609923294641e-03
-1.315579541532420979e-05 -1.109269814378772142e-05 1.476363538578543662e-06 -6.690819255979612693e-06 -3.510671228807587824e-06 -1.181680349887599202e-05 2.312049912212890567e-06 1.689035143861873504e-05 2.722663051430800645e-06 -3.479065032284909002e-05 -4.826088713953065672e-06 -1.912910098728264624e-05 -4.934128234832227279e-06 -1.893325252690877361e-05 -9.293438853968719445e-06 -4.975033022345923034e-05 1.810694224317306979e-03 -6.629013349257801180e-05 -8.502924890140092958e-05 -1.535116777170910253e-04 -3.125926021614440714e-04 -2.407929395487146075e-04 -1.206902111463912467e-03
1.015816759734754321e-05 -3.315003999535677765e-05 -2.217544542654433952e-05 -2.279107751757534529e-05 -3.235120836040099746e-05 -2.053058520015839017e-05 -3.187350766600660211e-05 -4.199421781784871678e-05 -3.673339508506344908e-05 -3.480888286761188596e-05 -2.891443908914182075e-05 -2.996038806414848764e-05 -4.656007269479582242e-05 -6.891604450034243229e-05 -3.967239006852825444e-05 -2.284235634514980833e-05 -6.629013349257801180e-05 2.739229294862316998e-03 -1.292990340085972451e-04 -1.782190977085465445e-04 1.378770508234227389e-05 -1.340815855354282550e-04 -6.460649732800082500e-04
-3.441187414519389229e-05 -3.361269793725371569e-05 -5.711752765905941297e-05 -6.515607946354405947e-05 -3.891544649058484322e-05 -5.380388949645247313e-05 -5.647511619438851284e-05 -5.135016405425395436e-05 -7.212714319681250337e-05 -6.796279914736869272e-05 -8.354106309751745064e-05 -3.117205023739550752e-05 -1.307837166634413036e-04 -6.435529169165823005e-05 -2.217723083423814911e-05 2.512928389272464232e-05 -8.502924890140092958e-05 -1.292990340085972451e-04 4.494463619392960289e-03 -1.691473463722868080e-04 -4.874852096917408175e-04 -3.327911711404307445e-04 -7.332508709884427885e-04
-1.247039494659598897e-04 -8.557249155488543218e-05 -1.051410422150227120e-04 -9.501227325137082136e-05 -9.577613900012807077e-05 -1.041945470515439422e-04 -1.487562905128120999e-04 -1.676711317941844673e-04 -1.394947233393525974e-04 -1.472682513831899669e-04 -2.010218887068320143e-04 -6.618578219942958067e-05 -1.675854885798821613e-04 -1.616790781630936139e-04 -1.522745425451759534e-04 -1.719410371745376987e-04 -1.535116777170910253e-04 -1.782190977085465445e-04 -1.691473463722868080e-04 8.022690297266057979e-03 -1.487297097976794050e-04 -6.753206484371272137e-04 7.198093112411996621e-04
-1.654341071043259257e-04 -1.694076515863672180e-04 -1.884342279346250238e-04 -2.062541905788644919e-04 -1.514382192542511709e-04 -1.958026569057930741e-04 -2.012962987610757257e-04 -1.977314422285783634e-04 -2.265978354617243645e-04 -2.214763065952883472e-04 -1.424449716570538144e-04 -2.760747518890777053e-04 -2.916821053719668251e-04 -1.336625846638443791e-04 -3.151681355211725195e-04 -2.428870333404779553e-04 -3.125926021614440714e-04 1.378770508234227389e-05 -4.874852096917408175e-04 -1.487297097976794050e-04 1.434973858424739082e-02 4.171316867492937184e-04 1.414120050151496284e-03
-2.737315112480194902e-04 -3.198082767858443374e-04 -2.891255289798769852e-04 -2.745285093540362283e-04 -2.959900127261691212e-04 -3.144442133153664966e-04 -3.559723123393066803e-04 -3.205135773801961975e-04 -2.260273060175326128e-04 -4.449105299634276015e-04 -3.191390108885561378e-04 -4.090062040596828953e-04 -2.858091437828359934e-04 -2.552919388585450449e-04 -2.716359774318172844e-04 -4.454001227986855924e-04 -2.407929395487146075e-04 -1.340815855354282550e-04 -3.327911711404307445e-04 -6.753206484371272137e-04 4.171316867492937184e-04 3.370550561513414173e-02 1.977094416031018216e-03
-4.325260679082267024e-04 -7.268067541209694265e-04 -7.462640957631328387e-04 -7.085123931404643111e-04 -6.737576664492385490e-04 -7.804110939433641075e-04 -7.244467089322875579e-04 -8.279636775020227189e-04 -7.647038579639827771e-04 -9.332495067845550038e-04 -7.840477563104162684e-04 -8.801714213175690620e-04 -8.560308541442011431e-04 -6.946003533319849510e-04 -1.042479753978541078e-03 -1.076862609923294641e-03 -1.206902111463912467e-03 -6.460649732800082500e-04 -7.332508709884427885e-04 7.198093112411996621e-04 1.414120050151496284e-03 1.977094416031018216e-03 7.306853339718620555e-02
