1.561222779081236503e-03 1.258294091643100428e-05 3.099943343686554039e-05 1.807511842557777746e-05 2.468722527027522484e-06 1.185901372437469233e-05 1.058985250954438641e-06 2.085662964678411841e-05 1.254048760964482065e-05 7.488267278996434356e-06 3.204286745985892454e-05 1.829469740249798257e-05 -1.934649320012742687e-05 1.563753964915360343e-05 -1.882624001785492820e-05 8.516371648235225247e-06 -1.135320096836049344e-04 -1.749829071515389543e-06 -6.381709779438374524e-05 -3.598421072838784785e-04 -6.018332428256381464e-04
1.258294091643100428e-05 2.310923551783800500e-04 2.325443432339279010e-05 2.081034272291023115e-05 2.504755716883679334e-05 1.100698520019391498e-05 2.473792368054336514e-05 2.519888362089580143e-05 1.239396482013160787e-05 1.960211054955467863e-05 7.329529831153837472e-06 4.218046180629486419e-06 1.524591072114157376e-06 7.540125049150056698e-06 -1.794855836585751926e-05 -2.679421111276790706e-05 -7.708314098693923929e-05 -1.079406754880359758e-04 -2.294090337035024441e-04 -3.234485148536887051e-04 -5.479314933339362930e-04
3.099943343686554039e-05 2.325443432339279010e-05 2.511038988202965905e-04 1.130460895886488314e-05 2.070656659448436460e-05 2.421153651250614673e-05 1.928983238244849155e-05 2.121371897972850783e-05 1.721788098076066097e-05 1.820317871210790555e-05 4.139660265222392425e-06 -4.534040922055745061e-06 4.635399465646972852e-06 -1.700023389648519786e-05 -2.434012791581907816e-05 -2.921368741757733502e-05 -7.564268598669022744e-05 -6.418083869064649880e-05 -1.888383355097619375e-04 -3.172762127744381674e-04 -7.006559135094268548e-04
1.807511842557777746e-05 2.081034272291023115e-05 1.130460895886488314e-05 2.521079769766203758e-04 2.460255903002566633e-05 1.431596515726801006e-05 2.202732488222052275e-05 1.324224548160628093e-05 1.097642813233818176e-05 7.430335876699940538e-06 1.538247326599757146e-05 8.295145483665714031e-06 7.904141155587717784e-06 -1.389966462311580654e-05 -3.080472876373524944e-05 -5.606415884405756050e-05 -8.570790863889979632e-05 -7.229657621465887334e-05 -1.273002428349535658e-04 -3.416947814916592254e-04 -5.807601754995988380e-04
2.468722527027522484e-06 2.504755716883679334e-05 2.070656659448436460e-05 2.460255903002566633e-05 3.034371893080675827e-04 2.195781503955557748e-05 1.371064980915454478e-05 1.553362026486496426e-05 3.158214827379070998e-05 1.706072347605969974e-05 8.002947840347005647e-06 2.162463952692807880e-06 1.164727701488806080e-05 -9.927800114525590127e-06 -9.948017919760792049e-06 -4.634163841149717189e-05 -9.117880613324982084e-05 -1.233136449906584338e-04 -1.811578471354527019e-04 -3.178449242585527912e-04 -6.749142678066059756e-04
1.185901372437469233e-05 1.100698520019391498e-05 2.421153651250614673e-05 1.431596515726801006e-05 2.195781503955557748e-05 3.109981838549754534e-04 1.818010430157726486e-05 4.903229848690616221e-06 1.772022825442774865e-05 2.067276611425571860e-05 1.322786488371037244e-05 1.216157287955304828e-05 -2.991472289517423447e-06 1.631241436842822376e-05 -1.853025651143069483e-05 -2.681576787146406902e-05 -7.327880011808299342e-05 -9.193321721278499233e-05 -2.377495722927550591e-04 -3.455698128621648374e-04 -6.419792486266956075e-04
1.058985250954438641e-06 2.473792368054336514e-05 1.928983238244849155e-05 2.202732488222052275e-05 1.371064980915454478e-05 1.818010430157726486e-05 3.607039471137054752e-04 1.117763563641238606e-05 1.958494264386410668e-05 8.616786432383065716e-06 3.520600340658669948e-06 2.769332700437162698e-05 -9.379444618164784332e-07 -8.723405727032438302e-06 -2.482259070327682730e-05 -1.875585003198113602e-05 -6.557027908760085949e-05 -9.367392779528898347e-05 -2.142915679923430448e-04 -3.996172004578366424e-04 -7.322118482201099001e-04
2.085662964678411841e-05 2.519888362089580143e-05 2.121371897972850783e-05 1.324224548160628093e-05 1.553362026486496426e-05 4.903229848690616221e-06 1.117763563641238606e-05 4.037029724890374644e-04 1.542347578538512423e-05 7.459867866993175396e-06 3.572569492871603445e-06 1.009606513047864829e-05 7.276979025897540245e-06 6.361300026975462909e-06 -1.607929514955331625e-05 -3.505429824837686227e-05 -5.524836801103522342e-05 -1.319471936991699465e-04 -1.962087991206617219e-04 -3.851064834807793602e-04 -5.923074341911088812e-04
1.254048760964482065e-05 1.239396482013160787e-05 1.721788098076066097e-05 1.097642813233818176e-05 3.158214827379070998e-05 1.772022825442774865e-05 1.958494264386410668e-05 1.542347578538512423e-05 4.578662620094711634e-04 2.140694260517773064e-05 -1.401065386173202809e-06 2.232906183476757072e-05 2.316780347118570596e-06 1.897642716751613115e-05 -3.062644152151490680e-05 -3.667638180127734019e-05 -3.898781264858184790e-05 -1.253937996728392691e-04 -2.463329171054599734e-04 -4.146187653106998025e-04 -8.139375148621908959e-04
7.488267278996434356e-06 1.960211054955467863e-05 1.820317871210790555e-05 7.430335876699940538e-06 1.706072347605969974e-05 2.067276611425571860e-05 8.616786432383065716e-06 7.459867866993175396e-06 2.140694260517773064e-05 5.552749904358455580e-04 1.278592805789559872e-05 -4.858058000072219959e-06 -4.102570434144399227e-07 -6.415427369542079156e-06 -3.733558869118102977e-06 -1.431103998488969128e-05 -4.156534341671573173e-05 -1.409493192893832036e-04 -2.824436531904610356e-04 -1.868556654057152680e-04 -7.391325590830504551e-04
3.204286745985892454e-05 7.329529831153837472e-06 4.139660265222392425e-06 1.538247326599757146e-05 8.002947840347005647e-06 1.322786488371037244e-05 3.520600340658669948e-06 3.572569492871603445e-06 -1.401065386173202809e-06 1.278592805789559872e-05 6.346794233511900141e-04 1.571819450110958571e-05 1.772832158221029360e-05 -2.913731900072901584e-05 -3.230454168581319563e-06 1.644253372522255617e-05 -6.584333421624066058e-05 -1.009903709788847039e-04 -1.476009401134768491e-04 -3.483631120064377873e-04 -6.070421075424381908e-04
1.829469740249798257e-05 4.218046180629486419e-06 -4.534040922055745061e-06 8.295145483665714031e-06 2.162463952692807880e-06 1.216157287955304828e-05 2.769332700437162698e-05 1.009606513047864829e-05 2.232906183476757072e-05 -4.858058000072219959e-06 1.571819450110958571e-05 8.124331414428703204e-04 1.253047480708721932e-05 2.492336667409674061e-05 -5.464132192860183949e-05 -6.804210935271093796e-05 -1.218408640899639410e-04 -1.275278203994958969e-04 -7.623424118275073447e-05 -2.397249313252957975e-04 -8.476808312394872513e-04
-1.934649320012742687e-05 1.524591072114157376e-06 4.635399465646972852e-06 7.904141155587717784e-06 1.164727701488806080e-05 -2.991472289517423447e-06 -9.379444618164784332e-07 7.276979025897540245e-06 2.316780347118570596e-06 -4.102570434144399227e-07 1.772832158221029360e-05 1.253047480708721932e-05 1.080061726573795485e-03 -5.372155985236080341e-05 -6.517982445999705231e-05 -3.136493189083969555e-05 -6.942204402348987782e-05 -8.572858836081913379e-05 -2.818099141380280763e-04 -2.859818547407440422e-04 -4.619076237406287075e-04
1.563753964915360343e-05 7.540125049150056698e-06 -1.700023389648519786e-05 -1.389966462311580654e-05 -9.927800114525590127e-06 1.631241436842822376e-05 -8.723405727032438302e-06 6.361300026975462909e-06 1.897642716751613115e-05 -6.415427369542079156e-06 -2.913731900072901584e-05 2.492336667409674061e-05 -5.372155985236080341e-05 1.480329939266853811e-03 -2.076218023893636075e-05 4.321374000720952979e-05 -3.533705391634478152e-05 -2.013359703619252753e-04 -2.135599828255783472e-04 -1.965071052348500572e-04 -9.432958639455796008e-04
-1.882624001785492820e-05 -1.794855836585751926e-05 -2.434012791581907816e-05 -3.080472876373524944e-05 -9.948017919760792049e-06 -1.853025651143069483e-05 -2.482259070327682730e-05 -1.607929514955331625e-05 -3.062644152151490680e-05 -3.733558869118102977e-06 -3.230454168581319563e-06 -5.464132192860183949e-05 -6.517982445999705231e-05 -2.076218023893636075e-05 2.045613843834228566e-03 2.211476919321372670e-05 -9.933225132846029866e-05 -1.515134602325194304e-05 -2.160670867060971259e-04 -3.468148451003708987e-04 -1.058429110826782484e-03
8.516371648235225247e-06 -2.679421111276790706e-05 -2.921368741757733502e-05 -5.606415884405756050e-05 -4.634163841149717189e-05 -2.681576787146406902e-05 -1.875585003198113602e-05 -3.505429824837686227e-05 -3.667638180127734019e-05 -1.431103998488969128e-05 1.644253372522255617e-05 -6.804210935271093796e-05 -3.136493189083969555e-05 4.321374000720952979e-05 2.211476919321372670e-05 3.092283603026321943e-03 7.966725729894651387e-06 -8.710616313476143933e-05 -1.581077120249773315e-04 -3.007677357790841059e-04 -3.212284779728773231e-04
-1.135320096836049344e-04 -7.708314098693923929e-05 -7.564268598669022744e-05 -8.570790863889979632e-05 -9.117880613324982084e-05 -7.327880011808299342e-05 -6.557027908760085949e-05 -5.524836801103522342e-05 -3.898781264858184790e-05 -4.156534341671573173e-05 -6.584333421624066058e-05 -1.218408640899639410e-04 -6.942204402348987782e-05 -3.533705391634478152e-05 -9.933225132846029866e-05 7.966725729894651387e-06 5.033667595627950089e-03 -3.303053987210568659e-05 5.435634057271549569e-05 2.012421587100453725e-04 -2.754084477164516842e-04
-1.749829071515389543e-06 -1.079406754880359758e-04 -6.418083869064649880e-05 -7.229657621465887334e-05 -1.233136449906584338e-04 -9.193321721278499233e-05 -9.367392779528898347e-05 -1.319471936991699465e-04 -1.253937996728392691e-04 -1.409493192893832036e-04 -1.009903709788847039e-04 -1.275278203994958969e-04 -8.572858836081913379e-05 -2.013359703619252753e-04 -1.515134602325194304e-05 -8.710616313476143933e-05 -3.303053987210568659e-05 8.799535188444543646e-03 5.193104887106201765e-05 -3.390754229548319671e-05 1.369044755755550948e-04
-6.381709779438374524e-05 -2.294090337035024441e-04 -1.888383355097619375e-04 -1.273002428349535658e-04 -1.811578471354527019e-04 -2.377495722927550591e-04 -2.142915679923430448e-04 -1.962087991206617219e-04 -2.463329171054599734e-04 -2.824436531904610356e-04 -1.476009401134768491e-04 -7.623424118275073447e-05 -2.818099141380280763e-04 -2.135599828255783472e-04 -2.160670867060971259e-04 -1.581077120249773315e-04 5.435634057271549569e-05 5.193104887106201765e-05 1.783885838098611676e-02 7.340746903318796923e-04 2.211113053131844638e-03
-3.598421072838784785e-04 -3.234485148536887051e-04 -3.172762127744381674e-04 -3.416947814916592254e-04 -3.178449242585527912e-04 -3.455698128621648374e-04 -3.996172004578366424e-04 -3.851064834807793602e-04 -4.146187653106998025e-04 -1.868556654057152680e-04 -3.483631120064377873e-04 -2.397249313252957975e-04 -2.859818547407440422e-04 -1.965071052348500572e-04 -3.468148451003708987e-04 -3.007677357790841059e-04 2.012421587100453725e-04 -3.390754229548319671e-05 7.340746903318796923e-04 4.161602837879983807e-02 5.530712553496196053e-03
-6.018332428256381464e-04 -5.479314933339362930e-04 -7.006559135094268548e-04 -5.807601754995988380e-04 -6.749142678066059756e-04 -6.419792486266956075e-04 -7.322118482201099001e-04 -5.923074341911088812e-04 -8.139375148621908959e-04 -7.391325590830504551e-04 -6.070421075424381908e-04 -8.476808312394872513e-04 -4.619076237406287075e-04 -9.432958639455796008e-04 -1.058429110826782484e-03 -3.212284779728773231e-04 -2.754084477164516842e-04 1.369044755755550948e-04 2.211113053131844638e-03 5.530712553496196053e-03 8.924556637179252572e-02
