1.615669736892072559e-04 2.442250859144053579e-05 2.220645037348894065e-05 2.678545652586881035e-05 2.475561491823657874e-05 2.241660215892039300e-05 2.659639392708923884e-05 2.340690512161102218e-05 2.424928696264988856e-05 2.942565373643334805e-05 2.127272261674136256e-05 1.841108106544987532e-05 1.539801287353890883e-05 2.006939655297384210e-05 1.440151269509174053e-05 2.635640220371942344e-06 -3.564751509909461726e-06 -1.454388646593083005e-05 -4.690202037325862810e-05 -8.669862483623407944e-05 -2.117581579186958213e-04 -2.696553791765333172e-04 -7.818325075439385092e-04
2.442250859144053579e-05 1.570743169032006695e-04 2.447226482140377432e-05 2.466487224611819441e-05 2.851584264773696103e-05 2.376091086751600182e-05 2.548461880283221255e-05 1.909802371090887628e-05 2.279294049303075254e-05 3.077662824537436156e-05 2.079302405106781421e-05 1.572566570396282304e-05 2.294838104412826854e-05 1.971159165891136288e-05 5.316841006227665891e-06 -4.173489560704243703e-07 -3.081142719835674749e-06 -1.944365855775156152e-05 -5.392222682825697930e-05 -5.476492077747947661e-05 -1.160317382604864360e-04 -3.062432826710529484e-04 -7.249807989768619534e-04
2.220645037348894065e-05 2.447226482140377432e-05 1.678422874854446263e-04 2.502866355779764204e-05 2.936565207647467570e-05 2.716924372456749223e-05 2.257601269974435131e-05 2.202799200067708218e-05 2.689356247373765222e-05 3.337990738269458929e-05 3.133487563830854739e-05 2.224163622443619815e-05 2.949864780055283861e-05 2.308384221161953925e-05 6.300913522055741356e-06 2.134943327503064120e-06 -8.501728366658286098e-06 4.217893322324889769e-07 -5.284344990093274059e-05 -1.085468923124505055e-04 -1.806659192786161394e-04 -3.241809165349827590e-04 -7.966223669456812826e-04
2.678545652586881035e-05 2.466487224611819441e-05 2.502866355779764204e-05 1.863234329435309181e-04 2.384041923847346109e-05 2.543178547702686017e-05 2.458783705835814400e-05 2.747516225981017215e-05 2.202963954004804437e-05 2.886449142574284542e-05 3.760353078392292329e-05 1.872852510976714572e-05 2.286795210529647896e-05 2.083840567596519804e-05 8.229050492311166973e-06 3.026044995721743405e-06 6.047571000104336846e-06 -4.334852834473972954e-05 -5.146732284768269728e-05 -1.142860777557315916e-04 -1.694674473380157465e-04 -2.963369472582083586e-04 -7.344610769760928724e-04
2.475561491823657874e-05 2.851584264773696103e-05 2.936565207647467570e-05 2.384041923847346109e-05 1.977311785678516755e-04 3.164215580685437676e-05 1.703396121527456182e-05 2.751665561383830272e-05 2.070884058114635752e-05 3.518613596918718797e-05 2.523580128706172834e-05 2.502657618793876527e-05 2.056721448982621429e-05 1.433936524727247284e-05 2.601624778220176996e-06 7.783503009407223271e-06 -1.302815475006827722e-05 -2.444787653825128204e-05 -2.773692467395350199e-05 -1.183324736946493334e-04 -1.980624398046207434e-04 -3.315746260277836559e-04 -8.542783364253840606e-04
2.241660215892039300e-05 2.376091086751600182e-05 2.716924372456749223e-05 2.543178547702686017e-05 3.164215580685437676e-05 2.119306387853174057e-04 2.283231574780342639e-05 2.793059983060839274e-05 2.410172219437590118e-05 3.100347267510560024e-05 2.191370773401632511e-05 1.300682057289532167e-05 2.198757689396815793e-05 2.021754408564272322e-05 1.799942757234537986e-05 2.190759997979695142e-06 -1.545659354939319752e-05 -1.034176642043185422e-05 -5.881687653522316882e-05 -1.135738039487330304e-04 -1.578262659254569102e-04 -3.717749124557751710e-04 -7.428125309520805086e-04
2.659639392708923884e-05 2.548461880283221255e-05 2.257601269974435131e-05 2.458783705835814400e-05 1.703396121527456182e-05 2.283231574780342639e-05 2.317229323937072881e-04 2.056636220064793894e-05 2.180946392031722880e-05 3.389871932496965850e-05 2.589025648906317440e-05 1.285800452534018005e-05 2.614709653556162748e-05 1.835140713223571508e-05 1.915119509708073666e-05 1.755060404058646993e-05 1.476981989440857988e-05 -3.057581151146812918e-05 -6.267692977702913910e-05 -9.147156311960276550e-05 -2.131148782860324228e-04 -3.483843603512960883e-04 -7.279241292036320787e-04
2.340690512161102218e-05 1.909802371090887628e-05 2.202799200067708218e-05 2.747516225981017215e-05 2.751665561383830272e-05 2.793059983060839274e-05 2.056636220064793894e-05 2.676352827345324635e-04 1.894358079399599077e-05 2.820920814833676967e-05 1.994960925093941360e-05 2.287845051166880974e-05 2.363632844740692196e-05 2.683002751027723794e-05 1.090903479609786924e-05 -4.119775159729709697e-06 6.537338601913676461e-06 -9.793344236731788886e-06 -7.406579096490353571e-05 -1.128968530271251303e-04 -1.943293689533185016e-04 -3.412127743579444370e-04 -8.672433378927120375e-04
2.424928696264988856e-05 2.279294049303075254e-05 2.689356247373765222e-05 2.202963954004804437e-05 2.070884058114635752e-05 2.410172219437590118e-05 2.180946392031722880e-05 1.894358079399599077e-05 3.033670935846754613e-04 3.411582105033838234e-05 1.909761457403597311e-05 1.759733971212136300e-05 3.189678599562241614e-05 1.653985835728739347e-05 2.489684234997021229e-05 2.251925168295086602e-06 -1.415088622177860306e-05 -5.103317025612573703e-05 -4.990350216414289597e-05 -1.356136482375390093e-04 -1.831796782853039565e-04 -3.401835210161394444e-04 -8.350525326477440270e-04
2.942565373643334805e-05 3.077662824537436156e-05 3.337990738269458929e-05 2.886449142574284542e-05 3.518613596918718797e-05 3.100347267510560024e-05 3.389871932496965850e-05 2.820920814833676967e-05 3.411582105033838234e-05 3.532343692330393932e-04 3.580820262809309004e-05 2.168801337364848486e-05 3.134360589699646254e-05 3.345955202431742415e-05 1.407001381223103299e-05 -2.726269773786139739e-06 -1.920618391934108982e-05 -5.004673112418583269e-05 -8.544840143657282520e-05 -1.606889725928159940e-04 -2.254906894068092120e-04 -4.136286073866364066e-04 -9.893161850098339087e-04
2.127272261674136256e-05 2.079302405106781421e-05 3.133487563830854739e-05 3.760353078392292329e-05 2.523580128706172834e-05 2.191370773401632511e-05 2.589025648906317440e-05 1.994960925093941360e-05 1.909761457403597311e-05 3.580820262809309004e-05 4.039254846033086188e-04 1.486257036297137873e-05 2.288517600660755160e-05 8.057571399962109844e-06 3.027565782284134531e-05 -8.693113203526952720e-07 3.513059702717809194e-06 -5.804646956525343337e-05 -8.250981321890758411e-05 -1.325921006441404897e-04 -2.354203513520899927e-04 -3.766785331667320377e-04 -8.499769995711680326e-04
1.841108106544987532e-05 1.572566570396282304e-05 2.224163622443619815e-05 1.872852510976714572e-05 2.502657618793876527e-05 1.300682057289532167e-05 1.285800452534018005e-05 2.287845051166880974e-05 1.759733971212136300e-05 2.168801337364848486e-05 1.486257036297137873e-05 4.750879822954396639e-04 1.541539758885310021e-05 1.774456020980810276e-05 4.569716193240210319e-06 3.366695135465022913e-06 -2.728309006222752182e-05 9.830889516190080816e-07 -2.669415458744608382e-05 -9.297536894554067339e-05 -2.691271476630973801e-04 -3.178879134775476059e-04 -9.573925293310823819e-04
1.539801287353890883e-05 2.294838104412826854e-05 2.949864780055283861e-05 2.286795210529647896e-05 2.056721448982621429e-05 2.198757689396815793e-05 2.614709653556162748e-05 2.363632844740692196e-05 3.189678599562241614e-05 3.134360589699646254e-05 2.288517600660755160e-05 1.541539758885310021e-05 5.767192861413227185e-04 9.948262044326908199e-06 1.788780703438720753e-05 -1.765179915034658620e-05 -7.869599562978517771e-06 -8.923861657166126909e-05 -6.717472972383664522e-05 -1.815501448133150072e-04 -2.742953801176384039e-04 -3.097077619819935015e-04 -9.925800928912071643e-04
2.006939655297384210e-05 1.971159165891136288e-05 2.308384221161953925e-05 2.083840567596519804e-05 1.433936524727247284e-05 2.021754408564272322e-05 1.835140713223571508e-05 2.683002751027723794e-05 1.653985835728739347e-05 3.345955202431742415e-05 8.057571399962109844e-06 1.774456020980810276e-05 9.948262044326908199e-06 7.060643338939465163e-04 -6.525608279447699162e-06 1.699787652002725146e-05 -4.415522728588226710e-05 -5.610977161047197643e-05 -1.065224721119707545e-04 -2.106260417944191886e-04 -1.841047236596960888e-04 -2.249567275988043188e-04 -9.642875677946192428e-04
1.440151269509174053e-05 5.316841006227665891e-06 6.300913522055741356e-06 8.229050492311166973e-06 2.601624778220176996e-06 1.799942757234537986e-05 1.915119509708073666e-05 1.090903479609786924e-05 2.489684234997021229e-05 1.407001381223103299e-05 3.027565782284134531e-05 4.569716193240210319e-06 1.788780703438720753e-05 -6.525608279447699162e-06 9.345773376127932113e-04 2.770932551196499317e-05 -1.683215339524012113e-05 -7.523644503071945226e-05 1.572831008892128809e-06 -1.556786500406067059e-04 -2.635537173260382249e-04 -4.308931534030099766e-04 -9.417367762851165756e-04
2.635640220371942344e-06 -4.173489560704243703e-07 2.134943327503064120e-06 3.026044995721743405e-06 7.783503009407223271e-06 2.190759997979695142e-06 1.755060404058646993e-05 -4.119775159729709697e-06 2.251925168295086602e-06 -2.726269773786139739e-06 -8.693113203526952720e-07 3.366695135465022913e-06 -1.765179915034658620e-05 1.699787652002725146e-05 2.770932551196499317e-05 1.221380045298027257e-03 -3.445554253251122714e-05 -1.494787738078390714e-05 -4.141000374803462965e-05 -1.888067396977919179e-04 -1.784539741874035645e-04 -4.825061952414370090e-04 -1.041841282655577060e-03
-3.564751509909461726e-06 -3.081142719835674749e-06 -8.501728366658286098e-06 6.047571000104336846e-06 -1.302815475006827722e-05 -1.545659354939319752e-05 1.476981989440857988e-05 6.537338601913676461e-06 -1.415088622177860306e-05 -1.920618391934108982e-05 3.513059702717809194e-06 -2.728309006222752182e-05 -7.869599562978517771e-06 -4.415522728588226710e-05 -1.683215339524012113e-05 -3.445554253251122714e-05 1.761967800904804416e-03 -7.630179727049788492e-05 -9.659080245464573644e-05 -1.535336966745870740e-04 -2.871316674855433314e-04 -4.597663279078625541e-04 -6.930019657813071962e-04
-1.454388646593083005e-05 -1.944365855775156152e-05 4.217893322324889769e-07 -4.334852834473972954e-05 -2.444787653825128204e-05 -1.034176642043185422e-05 -3.057581151146812918e-05 -9.793344236731788886e-06 -5.103317025612573703e-05 -5.004673112418583269e-05 -5.804646956525343337e-05 9.830889516190080816e-07 -8.923861657166126909e-05 -5.610977161047197643e-05 -7.523644503071945226e-05 -1.494787738078390714e-05 -7.630179727049788492e-05 2.712334365567188339e-03 -1.349078619190368224e-04 -1.621537733317270015e-04 8.316738525698628772e-06 -2.236551529391277919e-04 -8.677944595870364704e-04
-4.690202037325862810e-05 -5.392222682825697930e-05 -5.284344990093274059e-05 -5.146732284768269728e-05 -2.773692467395350199e-05 -5.881687653522316882e-05 -6.267692977702913910e-05 -7.406579096490353571e-05 -4.990350216414289597e-05 -8.544840143657282520e-05 -8.250981321890758411e-05 -2.669415458744608382e-05 -6.717472972383664522e-05 -1.065224721119707545e-04 1.572831008892128809e-06 -4.141000374803462965e-05 -9.659080245464573644e-05 -1.349078619190368224e-04 4.245775077352681795e-03 -2.874897768364558783e-04 -1.642878949262382526e-04 -2.641340735638299025e-04 -1.068868138856188428e-03
-8.669862483623407944e-05 -5.476492077747947661e-05 -1.085468923124505055e-04 -1.142860777557315916e-04 -1.183324736946493334e-04 -1.135738039487330304e-04 -9.147156311960276550e-05 -1.128968530271251303e-04 -1.356136482375390093e-04 -1.606889725928159940e-04 -1.325921006441404897e-04 -9.297536894554067339e-05 -1.815501448133150072e-04 -2.106260417944191886e-04 -1.556786500406067059e-04 -1.888067396977919179e-04 -1.535336966745870740e-04 -1.621537733317270015e-04 -2.874897768364558783e-04 7.502070079932256566e-03 -3.200273793406946160e-04 -1.171455165250754823e-04 -1.495724529668168571e-04
-2.117581579186958213e-04 -1.160317382604864360e-04 -1.806659192786161394e-04 -1.694674473380157465e-04 -1.980624398046207434e-04 -1.578262659254569102e-04 -2.131148782860324228e-04 -1.943293689533185016e-04 -1.831796782853039565e-04 -2.254906894068092120e-04 -2.354203513520899927e-04 -2.691271476630973801e-04 -2.742953801176384039e-04 -1.841047236596960888e-04 -2.635537173260382249e-04 -1.784539741874035645e-04 -2.871316674855433314e-04 8.316738525698628772e-06 -1.642878949262382526e-04 -3.200273793406946160e-04 1.356198594131602896e-02 7.767894486424066513e-05 7.277902443023650907e-04
-2.696553791765333172e-04 -3.062432826710529484e-04 -3.241809165349827590e-04 -2.963369472582083586e-04 -3.315746260277836559e-04 -3.717749124557751710e-04 -3.483843603512960883e-04 -3.412127743579444370e-04 -3.401835210161394444e-04 -4.136286073866364066e-04 -3.766785331667320377e-04 -3.178879134775476059e-04 -3.097077619819935015e-04 -2.249567275988043188e-04 -4.308931534030099766e-04 -4.825061952414370090e-04 -4.597663279078625541e-04 -2.236551529391277919e-04 -2.641340735638299025e-04 -1.171455165250754823e-04 7.767894486424066513e-05 2.964621347150190461e-02 2.817234085878012224e-03
-7.818325075439385092e-04 -7.249807989768619534e-04 -7.966223669456812826e-04 -7.344610769760928724e-04 -8.542783364253840606e-04 -7.428125309520805086e-04 -7.279241292036320787e-04 -8.672433378927120375e-04 -8.350525326477440270e-04 -9.893161850098339087e-04 -8.499769995711680326e-04 -9.573925293310823819e-04 -9.925800928912071643e-04 -9.642875677946192428e-04 -9.417367762851165756e-04 -1.041841282655577060e-03 -6.930019657813071962e-04 -8.677944595870364704e-04 -1.068868138856188428e-03 -1.495724529668168571e-04 7.277902443023650907e-04 2.817234085878012224e-03 6.811772369576782338e-02
