7.949571059856517857e-04 2.118603635290169351e-05 2.691978524565733050e-05 1.570566477234066981e-05 2.057938989764363825e-05 2.101230891945839500e-05 1.361525900046678232e-05 2.846579596435836823e-05 2.033403853354280027e-05 9.471710571382551210e-06 2.197021724393262237e-05 2.531735306332116159e-05 2.365679064366564536e-05 -1.157663409701086633e-05 -7.241370396661654286e-06 8.811869626600298184e-06 2.217267490949339484e-05 -6.554195212311965987e-05 -1.385530966701988367e-04 -2.211960151072793338e-04 -2.560520394897214912e-04 -7.418507269744972635e-04
2.118603635290169351e-05 1.881525127097249874e-04 2.233304486274387851e-05 2.287157759271232817e-05 2.033507322369427678e-05 1.846670138260453152e-05 1.941248302109714556e-05 2.238284388007596293e-05 1.845473021007725258e-05 2.215750307247729985e-05 1.386850054431183320e-05 1.377658859878660634e-05 1.697903645268865395e-05 9.838458518466170928e-06 -1.036204569266767732e-05 -1.150676278290274525e-05 -3.001998975416578344e-05 -7.348979054968661354e-05 -1.296131822430183318e-04 -2.130605151251575868e-04 -2.946133110000483525e-04 -5.694772094638684331e-04
2.691978524565733050e-05 2.233304486274387851e-05 2.105950463786217806e-04 2.065207870932347063e-05 2.653262670800070027e-05 2.288580442673817151e-05 2.497870816219684197e-05 2.161571745601577958e-05 2.084312197912529711e-05 1.976958026320522219e-05 1.679895368378553182e-05 8.883588025244808646e-06 1.722505560147770184e-05 -1.354434619702608760e-06 3.323242675778682166e-06 -8.134460239692765460e-06 -2.702196921238789231e-05 -7.473208276165891055e-05 -1.145063336505524763e-04 -1.587256143416513579e-04 -3.774519104841048871e-04 -8.165056579700447981e-04
1.570566477234066981e-05 2.287157759271232817e-05 2.065207870932347063e-05 2.171242195761386199e-04 2.088006675564002741e-05 2.052185611445021476e-05 2.603749262143456217e-05 2.029889936799198367e-05 2.317003987504792173e-05 2.150492408719620116e-05 1.088301525398480962e-05 6.991559506731614088e-06 8.923437793119584283e-06 1.082479903806385718e-05 -8.631927934963327394e-06 -1.571628883340618727e-05 -4.077127165991223693e-05 -6.808144844972562428e-05 -7.389713465505521402e-05 -2.046858980766623763e-04 -3.101624337420502003e-04 -6.856126421358217779e-04
2.057938989764363825e-05 2.033507322369427678e-05 2.653262670800070027e-05 2.088006675564002741e-05 2.470669861459697295e-04 2.460651650328214165e-05 1.666573138149232325e-05 2.160783003317105579e-05 1.833047735042339565e-05 2.472738118970231318e-05 1.786249855522542302e-05 9.166838449309821867e-06 6.849336277938277025e-06 1.793372862050034912e-05 -8.094496876845807566e-06 -1.407555300887252543e-05 -3.406640530702208420e-05 -5.500491328138694180e-05 -9.479587782276841651e-05 -1.351021034191473051e-04 -2.386985478019547824e-04 -7.948128993816118209e-04
2.101230891945839500e-05 1.846670138260453152e-05 2.288580442673817151e-05 2.052185611445021476e-05 2.460651650328214165e-05 2.648188997547263430e-04 2.002249095687351962e-05 1.862412310691936604e-05 2.934091717571140677e-05 2.309790060205540763e-05 2.090691861187322359e-05 1.813031824635872712e-05 2.261625226356228158e-05 1.010867815398373955e-06 3.120856301269019607e-06 -1.335723599877484554e-06 -2.531420481004611513e-05 -7.362815854704684996e-05 -1.361110680523628833e-04 -2.479055446616565753e-04 -3.009434469535783368e-04 -9.307407441531872008e-04
1.361525900046678232e-05 1.941248302109714556e-05 2.497870816219684197e-05 2.603749262143456217e-05 1.666573138149232325e-05 2.002249095687351962e-05 2.952337325605275354e-04 2.098381229592357421e-05 2.517069327237269068e-05 2.369500580587440643e-05 2.372777115637527291e-05 1.324089486374397639e-05 1.533999230356674235e-05 6.088942625977732871e-06 1.410468387805477084e-05 -6.892267021641303648e-06 7.366181652486655817e-06 -6.269906954956116899e-05 -1.753756571366478793e-04 -2.166347121326003930e-04 -3.752887494207411104e-04 -7.189918368491024806e-04
2.846579596435836823e-05 2.238284388007596293e-05 2.161571745601577958e-05 2.029889936799198367e-05 2.160783003317105579e-05 1.862412310691936604e-05 2.098381229592357421e-05 3.304787559306915129e-04 2.482983575818510652e-05 1.328070028288340341e-05 1.152070454393938214e-05 1.103516083167050168e-05 6.511917239839694919e-06 6.235555974117312184e-06 9.443168974807383299e-06 -7.571041721253578007e-06 -4.087018373933708611e-05 -5.151237090512209027e-05 -1.258563503382816148e-04 -1.626200667261599553e-04 -2.716999455719194584e-04 -8.930048232980887513e-04
2.033403853354280027e-05 1.845473021007725258e-05 2.084312197912529711e-05 2.317003987504792173e-05 1.833047735042339565e-05 2.934091717571140677e-05 2.517069327237269068e-05 2.482983575818510652e-05 3.873033872284572816e-04 5.309800936902032041e-06 1.412113345937697681e-05 1.827999130372151516e-05 1.664623664667624328e-05 2.363123257325423133e-06 1.719417694973135512e-05 -1.989430843385748093e-05 -4.201573861226268419e-05 -5.419273959724893528e-05 -1.614882862144224386e-04 -2.243537514915495967e-04 -2.902939353356466154e-04 -1.047064455105889500e-03
9.471710571382551210e-06 2.215750307247729985e-05 1.976958026320522219e-05 2.150492408719620116e-05 2.472738118970231318e-05 2.309790060205540763e-05 2.369500580587440643e-05 1.328070028288340341e-05 5.309800936902032041e-06 4.384853863155384378e-04 2.587003286560176499e-05 1.257798405562056595e-05 -4.866484730536685234e-08 1.880354425603387292e-05 8.181670993244807844e-06 -2.788716021406086217e-05 -2.725682056989133133e-07 -5.682781437809957318e-05 -1.595173996515608932e-04 -1.494229939183747071e-04 -3.860046022693911644e-04 -9.013669267578514662e-04
2.197021724393262237e-05 1.386850054431183320e-05 1.679895368378553182e-05 1.088301525398480962e-05 1.786249855522542302e-05 2.090691861187322359e-05 2.372777115637527291e-05 1.152070454393938214e-05 1.412113345937697681e-05 2.587003286560176499e-05 5.217018466019915932e-04 4.519129177166912845e-06 1.358490342246565898e-05 1.297433389762951240e-05 -9.000892548344575277e-07 -4.170893722016616803e-05 2.339186487995021659e-05 -7.108788900864451070e-05 -1.282470178073560202e-04 -1.736076765029477835e-04 -2.892862450593976145e-04 -8.782413443962817663e-04
2.531735306332116159e-05 1.377658859878660634e-05 8.883588025244808646e-06 6.991559506731614088e-06 9.166838449309821867e-06 1.813031824635872712e-05 1.324089486374397639e-05 1.103516083167050168e-05 1.827999130372151516e-05 1.257798405562056595e-05 4.519129177166912845e-06 6.266861743974841891e-04 3.637978016060350276e-06 -2.802379430368803838e-06 1.269712959269540615e-05 -1.381461349671728665e-05 -2.591496688543629153e-05 -8.487677433637500044e-05 -1.207185442561203338e-04 -2.402505242163275581e-04 -2.342060249849453601e-04 -8.067478919220440539e-04
2.365679064366564536e-05 1.697903645268865395e-05 1.722505560147770184e-05 8.923437793119584283e-06 6.849336277938277025e-06 2.261625226356228158e-05 1.533999230356674235e-05 6.511917239839694919e-06 1.664623664667624328e-05 -4.866484730536685234e-08 1.358490342246565898e-05 3.637978016060350276e-06 7.865124091709816637e-04 -2.475272856923813226e-05 2.853684414402928715e-05 -5.650136516812978392e-05 -2.822990265550491773e-05 -8.272970932789823072e-05 -1.830356943628849643e-04 -2.545049831392303058e-04 -2.324578890604281291e-04 -8.005017174230383064e-04
-1.157663409701086633e-05 9.838458518466170928e-06 -1.354434619702608760e-06 1.082479903806385718e-05 1.793372862050034912e-05 1.010867815398373955e-06 6.088942625977732871e-06 6.235555974117312184e-06 2.363123257325423133e-06 1.880354425603387292e-05 1.297433389762951240e-05 -2.802379430368803838e-06 -2.475272856923813226e-05 1.012818487915294070e-03 -2.734238257457810490e-06 4.453384607987982791e-06 -2.134524950440608475e-05 -9.089025552883214884e-05 -1.246183524161513338e-04 -1.827474196864330711e-04 -2.766655786397320986e-04 -1.042858040181232930e-03
-7.241370396661654286e-06 -1.036204569266767732e-05 3.323242675778682166e-06 -8.631927934963327394e-06 -8.094496876845807566e-06 3.120856301269019607e-06 1.410468387805477084e-05 9.443168974807383299e-06 1.719417694973135512e-05 8.181670993244807844e-06 -9.000892548344575277e-07 1.269712959269540615e-05 2.853684414402928715e-05 -2.734238257457810490e-06 1.383896453837214031e-03 -7.263152207316836374e-05 -6.617609649048175385e-05 -1.219428270673097862e-04 -2.492207285551076098e-05 -2.593807460890906009e-04 -3.495089170478481427e-04 -1.009329529707304277e-03
8.811869626600298184e-06 -1.150676278290274525e-05 -8.134460239692765460e-06 -1.571628883340618727e-05 -1.407555300887252543e-05 -1.335723599877484554e-06 -6.892267021641303648e-06 -7.571041721253578007e-06 -1.989430843385748093e-05 -2.788716021406086217e-05 -4.170893722016616803e-05 -1.381461349671728665e-05 -5.650136516812978392e-05 4.453384607987982791e-06 -7.263152207316836374e-05 1.978496120585601561e-03 -3.583116532957125765e-05 -8.880233280326519231e-05 6.651935563766034725e-06 -2.451271471012285365e-04 -2.046850961799933277e-04 -1.191115459463698827e-03
2.217267490949339484e-05 -3.001998975416578344e-05 -2.702196921238789231e-05 -4.077127165991223693e-05 -3.406640530702208420e-05 -2.531420481004611513e-05 7.366181652486655817e-06 -4.087018373933708611e-05 -4.201573861226268419e-05 -2.725682056989133133e-07 2.339186487995021659e-05 -2.591496688543629153e-05 -2.822990265550491773e-05 -2.134524950440608475e-05 -6.617609649048175385e-05 -3.583116532957125765e-05 2.939566803623349083e-03 5.450974017349064383e-05 -9.944963475080212064e-05 -5.131817127651651725e-04 -1.775983352829321716e-04 -1.094080072279500623e-03
-6.554195212311965987e-05 -7.348979054968661354e-05 -7.473208276165891055e-05 -6.808144844972562428e-05 -5.500491328138694180e-05 -7.362815854704684996e-05 -6.269906954956116899e-05 -5.151237090512209027e-05 -5.419273959724893528e-05 -5.682781437809957318e-05 -7.108788900864451070e-05 -8.487677433637500044e-05 -8.272970932789823072e-05 -9.089025552883214884e-05 -1.219428270673097862e-04 -8.880233280326519231e-05 5.450974017349064383e-05 4.643300191002981171e-03 -2.182449952410939979e-04 -4.022913796514157071e-04 -5.930908099124753986e-05 2.764816582247980425e-04
-1.385530966701988367e-04 -1.296131822430183318e-04 -1.145063336505524763e-04 -7.389713465505521402e-05 -9.479587782276841651e-05 -1.361110680523628833e-04 -1.753756571366478793e-04 -1.258563503382816148e-04 -1.614882862144224386e-04 -1.595173996515608932e-04 -1.282470178073560202e-04 -1.207185442561203338e-04 -1.830356943628849643e-04 -1.246183524161513338e-04 -2.492207285551076098e-05 6.651935563766034725e-06 -9.944963475080212064e-05 -2.182449952410939979e-04 8.329738586670559081e-03 -8.988485294370421373e-05 1.836323140039495573e-04 -1.133687842639053128e-04
-2.211960151072793338e-04 -2.130605151251575868e-04 -1.587256143416513579e-04 -2.046858980766623763e-04 -1.351021034191473051e-04 -2.479055446616565753e-04 -2.166347121326003930e-04 -1.626200667261599553e-04 -2.243537514915495967e-04 -1.494229939183747071e-04 -1.736076765029477835e-04 -2.402505242163275581e-04 -2.545049831392303058e-04 -1.827474196864330711e-04 -2.593807460890906009e-04 -2.451271471012285365e-04 -5.131817127651651725e-04 -4.022913796514157071e-04 -8.988485294370421373e-05 1.665865668527211768e-02 -7.784769564374771964e-06 1.145613628392195020e-03
-2.560520394897214912e-04 -2.946133110000483525e-04 -3.774519104841048871e-04 -3.101624337420502003e-04 -2.386985478019547824e-04 -3.009434469535783368e-04 -3.752887494207411104e-04 -2.716999455719194584e-04 -2.902939353356466154e-04 -3.860046022693911644e-04 -2.892862450593976145e-04 -2.342060249849453601e-04 -2.324578890604281291e-04 -2.766655786397320986e-04 -3.495089170478481427e-04 -2.046850961799933277e-04 -1.775983352829321716e-04 -5.930908099124753986e-05 1.836323140039495573e-04 -7.784769564374771964e-06 3.741275500714168201e-02 8.816920031338234967e-04
-7.418507269744972635e-04 -5.694772094638684331e-04 -8.165056579700447981e-04 -6.856126421358217779e-04 -7.948128993816118209e-04 -9.307407441531872008e-04 -7.189918368491024806e-04 -8.930048232980887513e-04 -1.047064455105889500e-03 -9.013669267578514662e-04 -8.782413443962817663e-04 -8.067478919220440539e-04 -8.005017174230383064e-04 -1.042858040181232930e-03 -1.009329529707304277e-03 -1.191115459463698827e-03 -1.094080072279500623e-03 2.764816582247980425e-04 -1.133687842639053128e-04 1.145613628392195020e-03 8.816920031338234967e-04 8.908894335562990430e-02
