7.601304684448825441e-03 6.487007306718124624e-05 -1.292986646798224067e-05 -9.170769682037334950e-06 -2.702660629978051779e-05 3.005718867601152132e-05 -6.364419203773397039e-05 5.529034564503329362e-05 -4.332160382855355159e-05 9.161797848420273103e-06 -3.377856828788212583e-05 -1.160307036244582980e-04 -5.392891503412606535e-06 9.884237595015627354e-05 -1.120524934193479458e-04 -9.965251089991402299e-05 -3.894832788636413100e-04 6.828251775382871169e-06 -2.402721914429288444e-04
6.487007306718124624e-05 3.289777463856901696e-04 1.183769437446656300e-05 1.070871751729092487e-05 6.874931539287227368e-06 5.750707781808211746e-06 8.166246583934629651e-06 3.193425306841679164e-06 -5.826109796520273435e-06 6.370076999053731855e-06 -7.319224537064555045e-07 -1.706990405567781167e-05 -1.850389242693331536e-05 -5.185813727203480078e-05 -9.061464190519253020e-05 -7.878788358485655670e-05 -1.701253671892557823e-04 -1.893337728502633038e-04 -6.124482205765674567e-04
-1.292986646798224067e-05 1.183769437446656300e-05 3.659245191655146712e-04 9.863889136189601649e-06 2.347037786086079251e-05 8.512645400853690599e-06 1.312154821198414317e-05 1.376036990012629354e-05 1.649874377569705240e-06 7.062426673788677472e-06 3.130374768412963690e-07 -9.921724556827789997e-06 -2.140191260055463886e-05 -1.515767724271402419e-05 -1.823532243345377089e-05 -5.394416828117933272e-05 -1.604186674812845535e-04 -2.490741791878679475e-04 -7.027303883540586982e-04
-9.170769682037334950e-06 1.070871751729092487e-05 9.863889136189601649e-06 3.926766134178174693e-04 2.477987281573628919e-05 4.993950131084658832e-06 7.087015672480822665e-06 9.979407416561388364e-06 6.144429842814859492e-07 1.944862492614814312e-05 -4.002712185840200004e-07 1.515168702681463507e-06 -3.128998126249583726e-05 -4.939278115115087510e-05 -8.445197511324890351e-05 -7.394415101085382788e-05 -1.490706605450603343e-04 -3.786377648292622877e-04 -4.922069332075987855e-04
-2.702660629978051779e-05 6.874931539287227368e-06 2.347037786086079251e-05 2.477987281573628919e-05 4.506549005842798786e-04 2.307198788840240548e-05 1.763887805984390563e-05 6.417461196334475759e-06 -1.377136958723088031e-06 1.979658864679859030e-05 2.455399206687913264e-06 1.027274745530375089e-05 -1.891877092059742377e-05 -3.849310016722100639e-05 -6.052020207704357155e-05 -6.585770241131954153e-05 -1.401947298544366596e-04 -2.427301556668441088e-04 -3.717685229301649586e-04
3.005718867601152132e-05 5.750707781808211746e-06 8.512645400853690599e-06 4.993950131084658832e-06 2.307198788840240548e-05 5.012978385130212192e-04 1.316131006243727818e-05 -2.477610048206682634e-06 1.070678238627675613e-05 8.017250805465398484e-06 1.402121867735618285e-05 -1.499569390996802915e-05 -1.812670696259010167e-05 8.057914138411793754e-07 -4.483618565794460036e-05 -8.778985324713825002e-05 -1.005719446302136467e-04 -3.543030493338362097e-04 -6.443793905190284017e-04
-6.364419203773397039e-05 8.166246583934629651e-06 1.312154821198414317e-05 7.087015672480822665e-06 1.763887805984390563e-05 1.316131006243727818e-05 5.974655473680952258e-04 -3.599241807813394646e-06 -2.867133125323304673e-06 -9.896058842764429437e-07 3.495495331496371741e-05 -1.825987660688141266e-05 -1.777788520109783280e-05 -5.602230824344643309e-05 -6.104330737182267421e-05 -1.148230140518111282e-04 -1.259388362106235849e-04 -4.341186858851333772e-05 -5.748902177763945669e-04
5.529034564503329362e-05 3.193425306841679164e-06 1.376036990012629354e-05 9.979407416561388364e-06 6.417461196334475759e-06 -2.477610048206682634e-06 -3.599241807813394646e-06 6.999758357633597021e-04 -5.839735351133727216e-06 5.329664322729806918e-06 1.728898187734154591e-05 -1.572433077945616737e-05 -1.228109733584909738e-05 -3.487716287831973695e-05 -4.054356175267984921e-05 -1.124394875250055533e-04 -1.296053222572761518e-04 -3.803590829140901801e-04 -5.071281792283435655e-04
-4.332160382855355159e-05 -5.826109796520273435e-06 1.649874377569705240e-06 6.144429842814859492e-07 -1.377136958723088031e-06 1.070678238627675613e-05 -2.867133125323304673e-06 -5.839735351133727216e-06 8.114264443436942920e-04 3.504652593377146464e-05 4.049390815519124604e-05 5.710357542740916586e-06 -3.775709051909745088e-05 -6.457154776349960180e-06 -3.558090259441928471e-05 -1.725590030570564110e-05 -1.488553469951173561e-04 -2.168053920671966154e-04 -4.913074197145358762e-04
9.161797848420273103e-06 6.370076999053731855e-06 7.062426673788677472e-06 1.944862492614814312e-05 1.979658864679859030e-05 8.017250805465398484e-06 -9.896058842764429437e-07 5.329664322729806918e-06 3.504652593377146464e-05 1.028970102032657858e-03 1.814389500089294945e-05 2.369838273816922599e-06 -4.773908930332363169e-05 -8.454428160995591069e-06 -3.508550002458392488e-06 -3.436968732390294776e-05 -1.657968204037506407e-04 -4.080730116552165674e-04 -5.430949938839510927e-04
-3.377856828788212583e-05 -7.319224537064555045e-07 3.130374768412963690e-07 -4.002712185840200004e-07 2.455399206687913264e-06 1.402121867735618285e-05 3.495495331496371741e-05 1.728898187734154591e-05 4.049390815519124604e-05 1.814389500089294945e-05 1.258520276796778591e-03 -1.667755886532377958e-05 5.262809384812692521e-06 -4.803169674987191069e-05 8.598914244795498145e-06 -4.140847905030121853e-05 -2.042357425386477686e-04 -3.554198528961360340e-04 -7.035374267806159031e-04
-1.160307036244582980e-04 -1.706990405567781167e-05 -9.921724556827789997e-06 1.515168702681463507e-06 1.027274745530375089e-05 -1.499569390996802915e-05 -1.825987660688141266e-05 -1.572433077945616737e-05 5.710357542740916586e-06 2.369838273816922599e-06 -1.667755886532377958e-05 1.664033062965416393e-03 3.645953578089814064e-05 2.324066793299033084e-05 4.985521683922891466e-05 -8.274323224455507986e-05 -7.875044551306403838e-05 -2.896708994038384708e-04 -5.580739808137520153e-04
-5.392891503412606535e-06 -1.850389242693331536e-05 -2.140191260055463886e-05 -3.128998126249583726e-05 -1.891877092059742377e-05 -1.812670696259010167e-05 -1.777788520109783280e-05 -1.228109733584909738e-05 -3.775709051909745088e-05 -4.773908930332363169e-05 5.262809384812692521e-06 3.645953578089814064e-05 2.459492967098016441e-03 -2.280108133118239694e-05 -7.600283232250530543e-05 1.574879969961063783e-04 -4.152421882235409400e-05 3.415968305148851629e-04 3.179784846086664658e-04
9.884237595015627354e-05 -5.185813727203480078e-05 -1.515767724271402419e-05 -4.939278115115087510e-05 -3.849310016722100639e-05 8.057914138411793754e-07 -5.602230824344643309e-05 -3.487716287831973695e-05 -6.457154776349960180e-06 -8.454428160995591069e-06 -4.803169674987191069e-05 2.324066793299033084e-05 -2.280108133118239694e-05 3.577665781269671191e-03 7.620821991591550143e-05 -8.715965477313048729e-05 -5.745979320013093678e-05 2.269636494367336678e-04 -5.611777944429115862e-05
-1.120524934193479458e-04 -9.061464190519253020e-05 -1.823532243345377089e-05 -8.445197511324890351e-05 -6.052020207704357155e-05 -4.483618565794460036e-05 -6.104330737182267421e-05 -4.054356175267984921e-05 -3.558090259441928471e-05 -3.508550002458392488e-06 8.598914244795498145e-06 4.985521683922891466e-05 -7.600283232250530543e-05 7.620821991591550143e-05 5.984333896364287149e-03 -1.201071996342318755e-05 3.624049489162349579e-04 6.885660923367299712e-05 1.557693503356136471e-03
-9.965251089991402299e-05 -7.878788358485655670e-05 -5.394416828117933272e-05 -7.394415101085382788e-05 -6.585770241131954153e-05 -8.778985324713825002e-05 -1.148230140518111282e-04 -1.124394875250055533e-04 -1.725590030570564110e-05 -3.436968732390294776e-05 -4.140847905030121853e-05 -8.274323224455507986e-05 1.574879969961063783e-04 -8.715965477313048729e-05 -1.201071996342318755e-05 1.022255763910498785e-02 5.958648306727032428e-04 1.261718236637686006e-04 7.816911359846615134e-04
-3.894832788636413100e-04 -1.701253671892557823e-04 -1.604186674812845535e-04 -1.490706605450603343e-04 -1.401947298544366596e-04 -1.005719446302136467e-04 -1.259388362106235849e-04 -1.296053222572761518e-04 -1.488553469951173561e-04 -1.657968204037506407e-04 -2.042357425386477686e-04 -7.875044551306403838e-05 -4.152421882235409400e-05 -5.745979320013093678e-05 3.624049489162349579e-04 5.958648306727032428e-04 2.060461056114415088e-02 9.555684023581110858e-04 3.270188176917648761e-03
6.828251775382871169e-06 -1.893337728502633038e-04 -2.490741791878679475e-04 -3.786377648292622877e-04 -2.427301556668441088e-04 -3.543030493338362097e-04 -4.341186858851333772e-05 -3.803590829140901801e-04 -2.168053920671966154e-04 -4.080730116552165674e-04 -3.554198528961360340e-04 -2.896708994038384708e-04 3.415968305148851629e-04 2.269636494367336678e-04 6.885660923367299712e-05 1.261718236637686006e-04 9.555684023581110858e-04 4.852148471008833897e-02 5.919165602386494522e-03
-2.402721914429288444e-04 -6.124482205765674567e-04 -7.027303883540586982e-04 -4.922069332075987855e-04 -3.717685229301649586e-04 -6.443793905190284017e-04 -5.748902177763945669e-04 -5.071281792283435655e-04 -4.913074197145358762e-04 -5.430949938839510927e-04 -7.035374267806159031e-04 -5.580739808137520153e-04 3.179784846086664658e-04 -5.611777944429115862e-05 1.557693503356136471e-03 7.816911359846615134e-04 3.270188176917648761e-03 5.919165602386494522e-03 1.159056481967163099e-01
