2.874092107885942333e-03 2.499681754276467297e-05 -4.396985784840524869e-06 2.148670548619528454e-05 -4.960125573611516781e-06 -2.053113311732792837e-05 3.380475298838846925e-05 1.498348925377809089e-05 3.258426607877024165e-05 -7.832176064609891404e-06 -3.603585903446587178e-05 -2.310152066119041905e-05 -7.024931615272572961e-06 -5.143010114076934419e-05 -3.509747109487028674e-05 -1.873057374607650042e-04 -1.945704205543756960e-04 -1.258434861713747456e-04 -4.314193977686448965e-04 -2.531347763486863122e-04
2.499681754276467297e-05 2.750322692900717737e-04 1.034086850741552447e-05 2.104565458319558927e-05 1.360082501048512135e-05 9.897135268094970289e-06 2.183128851386020075e-05 2.295042257973749418e-05 -8.474359223221037605e-07 6.792795051509613501e-06 -3.496621003770366478e-06 -1.312568012803647015e-06 -1.741453019325452708e-05 -2.538287410119337897e-05 -2.922368948431428205e-05 -7.005422939182551201e-05 -1.288328872207030493e-04 -1.429641963563936101e-04 -3.461482911914482395e-04 -6.051502549871875516e-04
-4.396985784840524869e-06 1.034086850741552447e-05 2.949107652868879041e-04 1.879683741479941080e-05 1.878418042531098487e-05 1.098492201176840539e-05 7.431071073562677512e-06 2.865420456745864396e-06 9.262298991256053476e-06 9.766203966826954847e-06 1.068328982692050882e-05 4.952426466744781124e-06 -1.941749607833584049e-05 -3.466151128933717487e-05 -4.894354632368994338e-05 -9.125147609166985583e-05 -3.415109342454718385e-05 -1.815517773090959250e-04 -3.429632098628202668e-04 -6.644348772246041427e-04
2.148670548619528454e-05 2.104565458319558927e-05 1.879683741479941080e-05 3.275480655317801861e-04 1.224283792924953820e-05 6.211815434296373705e-06 3.892632941834910811e-06 9.393384846281786698e-06 1.691436061632545766e-05 3.286829192685201412e-06 2.114469609360628192e-05 5.305050434755436306e-06 -6.111409473729652819e-07 -3.008076214382509442e-05 -4.255672782800295535e-05 -7.146074362181414669e-05 -1.020600991803620927e-04 -1.293444599926961555e-04 -3.751018679042595000e-04 -6.990375377958393376e-04
-4.960125573611516781e-06 1.360082501048512135e-05 1.878418042531098487e-05 1.224283792924953820e-05 3.505044647473731442e-04 1.549380299814008048e-05 1.634672514377651656e-05 1.576891680706292735e-05 1.196489989994786476e-05 -1.107420565541910223e-06 1.658196656439068215e-05 -6.541391454990643445e-06 -1.325974315019581994e-05 -3.660254418249839946e-05 -3.229024356447786261e-05 -7.769033216289851485e-05 -1.110420484938519445e-04 -1.960263090975698558e-04 -3.252800297065904346e-04 -7.525999567728166358e-04
-2.053113311732792837e-05 9.897135268094970289e-06 1.098492201176840539e-05 6.211815434296373705e-06 1.549380299814008048e-05 4.078261795804279154e-04 3.220899171808919436e-06 1.071986709840953316e-05 9.005686146797974869e-07 -7.455545112424376401e-06 -9.690600913560305779e-06 -1.822878894257327760e-05 -1.204740820605055724e-05 1.301400135669661311e-05 -1.520802060562280640e-05 -7.197720471743924097e-05 -8.439705082383393655e-05 -2.656505660975280454e-04 -1.825695828935102805e-04 -5.157125108333035935e-04
3.380475298838846925e-05 2.183128851386020075e-05 7.431071073562677512e-06 3.892632941834910811e-06 1.634672514377651656e-05 3.220899171808919436e-06 4.381021698725309733e-04 9.068022363615516987e-06 1.153515129228120353e-06 8.263967947216713247e-06 4.942152771142371601e-06 1.771678249737811283e-05 -1.035105240983644963e-06 -1.935653729781182874e-05 -4.042081268106369592e-05 -4.671882963015764549e-05 -1.507217099649381940e-04 -1.367558792436015245e-04 -3.343628290328706678e-04 -6.053239062060934055e-04
1.498348925377809089e-05 2.295042257973749418e-05 2.865420456745864396e-06 9.393384846281786698e-06 1.576891680706292735e-05 1.071986709840953316e-05 9.068022363615516987e-06 5.137925941883451225e-04 7.503291802255350286e-06 5.456246611325749548e-06 2.056105276897237195e-06 1.526128537281242549e-05 -1.893232207938504776e-05 -4.495174172291699680e-05 -4.383282646600791121e-05 -1.001427400965525423e-04 -7.576487192911955150e-05 -1.885313483818841604e-04 -3.106367479548016492e-04 -5.047092968834299446e-04
3.258426607877024165e-05 -8.474359223221037605e-07 9.262298991256053476e-06 1.691436061632545766e-05 1.196489989994786476e-05 9.005686146797974869e-07 1.153515129228120353e-06 7.503291802255350286e-06 6.117640845670201544e-04 3.890549794113655365e-07 1.273627294692673646e-05 1.166275170630472212e-05 -1.048705330532217010e-05 -3.124747021120239416e-06 -1.279649241938748785e-05 -6.232374818651411957e-05 -3.135776382077763502e-05 -2.355928482168699145e-04 -3.300478254797684498e-04 -5.690091789098118647e-04
-7.832176064609891404e-06 6.792795051509613501e-06 9.766203966826954847e-06 3.286829192685201412e-06 -1.107420565541910223e-06 -7.455545112424376401e-06 8.263967947216713247e-06 5.456246611325749548e-06 3.890549794113655365e-07 7.220839382321360715e-04 2.986207014532126641e-05 -3.061477206263877806e-06 6.698147483588527660e-06 -1.681609857571665366e-05 -1.361750469856326797e-05 -1.679202504157251889e-05 -1.613524144696799000e-04 -1.420461482875054861e-04 -2.332857772105093161e-04 -5.936492711293835057e-04
-3.603585903446587178e-05 -3.496621003770366478e-06 1.068328982692050882e-05 2.114469609360628192e-05 1.658196656439068215e-05 -9.690600913560305779e-06 4.942152771142371601e-06 2.056105276897237195e-06 1.273627294692673646e-05 2.986207014532126641e-05 8.911456651585717564e-04 1.947360161489768840e-05 5.981455263915003380e-06 -1.064082827797115993e-06 -8.730408077788849087e-05 -1.500978503516118516e-05 -1.104866937109738904e-04 -1.984967635240165453e-04 -4.606935113508197352e-04 -8.277631283085580289e-04
-2.310152066119041905e-05 -1.312568012803647015e-06 4.952426466744781124e-06 5.305050434755436306e-06 -6.541391454990643445e-06 -1.822878894257327760e-05 1.771678249737811283e-05 1.526128537281242549e-05 1.166275170630472212e-05 -3.061477206263877806e-06 1.947360161489768840e-05 1.110064249191182028e-03 -1.990890774882828369e-05 -4.960011259434490529e-05 -3.517506275053039288e-05 -2.997608626749674615e-05 -1.753467336137848711e-04 -1.189933386394010300e-04 -3.382012113013007802e-04 -5.931367079702682061e-04
-7.024931615272572961e-06 -1.741453019325452708e-05 -1.941749607833584049e-05 -6.111409473729652819e-07 -1.325974315019581994e-05 -1.204740820605055724e-05 -1.035105240983644963e-06 -1.893232207938504776e-05 -1.048705330532217010e-05 6.698147483588527660e-06 5.981455263915003380e-06 -1.990890774882828369e-05 1.579714452628488367e-03 -3.685081687388502337e-05 -3.374124876489375619e-05 5.369695311579517300e-05 -6.012197403936233957e-05 -1.125050824124636614e-04 -3.071248607332545096e-04 -3.944615875229641748e-04
-5.143010114076934419e-05 -2.538287410119337897e-05 -3.466151128933717487e-05 -3.008076214382509442e-05 -3.660254418249839946e-05 1.301400135669661311e-05 -1.935653729781182874e-05 -4.495174172291699680e-05 -3.124747021120239416e-06 -1.681609857571665366e-05 -1.064082827797115993e-06 -4.960011259434490529e-05 -3.685081687388502337e-05 2.274914245897975435e-03 1.487942782723368161e-05 -7.454132315650776870e-05 -1.360448037721009743e-04 -7.810792617827852350e-05 -3.312117182535993212e-04 -4.970560216329235944e-04
-3.509747109487028674e-05 -2.922368948431428205e-05 -4.894354632368994338e-05 -4.255672782800295535e-05 -3.229024356447786261e-05 -1.520802060562280640e-05 -4.042081268106369592e-05 -4.383282646600791121e-05 -1.279649241938748785e-05 -1.361750469856326797e-05 -8.730408077788849087e-05 -3.517506275053039288e-05 -3.374124876489375619e-05 1.487942782723368161e-05 3.289419549540030692e-03 -3.000284130351397083e-05 -1.217647349781622563e-04 3.896238391771925449e-05 3.521224058706865206e-04 -2.323439910303795131e-04
-1.873057374607650042e-04 -7.005422939182551201e-05 -9.125147609166985583e-05 -7.146074362181414669e-05 -7.769033216289851485e-05 -7.197720471743924097e-05 -4.671882963015764549e-05 -1.001427400965525423e-04 -6.232374818651411957e-05 -1.679202504157251889e-05 -1.500978503516118516e-05 -2.997608626749674615e-05 5.369695311579517300e-05 -7.454132315650776870e-05 -3.000284130351397083e-05 5.384854611794747357e-03 2.772388809055835760e-04 2.209119210239914347e-04 2.651592325776688753e-04 1.146234506246410803e-04
-1.945704205543756960e-04 -1.288328872207030493e-04 -3.415109342454718385e-05 -1.020600991803620927e-04 -1.110420484938519445e-04 -8.439705082383393655e-05 -1.507217099649381940e-04 -7.576487192911955150e-05 -3.135776382077763502e-05 -1.613524144696799000e-04 -1.104866937109738904e-04 -1.753467336137848711e-04 -6.012197403936233957e-05 -1.360448037721009743e-04 -1.217647349781622563e-04 2.772388809055835760e-04 9.472438060721597580e-03 8.870654932133482603e-05 -3.900972835924672202e-04 7.065261299185607909e-04
-1.258434861713747456e-04 -1.429641963563936101e-04 -1.815517773090959250e-04 -1.293444599926961555e-04 -1.960263090975698558e-04 -2.656505660975280454e-04 -1.367558792436015245e-04 -1.885313483818841604e-04 -2.355928482168699145e-04 -1.420461482875054861e-04 -1.984967635240165453e-04 -1.189933386394010300e-04 -1.125050824124636614e-04 -7.810792617827852350e-05 3.896238391771925449e-05 2.209119210239914347e-04 8.870654932133482603e-05 1.947986127651504806e-02 1.103448782821494622e-03 2.122342896464931954e-03
-4.314193977686448965e-04 -3.461482911914482395e-04 -3.429632098628202668e-04 -3.751018679042595000e-04 -3.252800297065904346e-04 -1.825695828935102805e-04 -3.343628290328706678e-04 -3.106367479548016492e-04 -3.300478254797684498e-04 -2.332857772105093161e-04 -4.606935113508197352e-04 -3.382012113013007802e-04 -3.071248607332545096e-04 -3.312117182535993212e-04 3.521224058706865206e-04 2.651592325776688753e-04 -3.900972835924672202e-04 1.103448782821494622e-03 4.711813047391406883e-02 5.592127077054776310e-03
-2.531347763486863122e-04 -6.051502549871875516e-04 -6.644348772246041427e-04 -6.990375377958393376e-04 -7.525999567728166358e-04 -5.157125108333035935e-04 -6.053239062060934055e-04 -5.047092968834299446e-04 -5.690091789098118647e-04 -5.936492711293835057e-04 -8.277631283085580289e-04 -5.931367079702682061e-04 -3.944615875229641748e-04 -4.970560216329235944e-04 -2.323439910303795131e-04 1.146234506246410803e-04 7.065261299185607909e-04 2.122342896464931954e-03 5.592127077054776310e-03 9.492262507156233597e-02
